{
    "numInputs": 4,
    "numHidden": 20,
    "numOutputs": 1,
    "bias0": {
        "rows": 1,
        "cols": 20,
        "data": [
            [
                -12.171116907458623,
                3.155785930109184,
                -2.6443876387186607,
                6.206770012384985,
                3.7482663989042755,
                -7.439184200413231,
                -9.010327337304687,
                1.3877284101617828,
                11.41233523640377,
                -2.2264170046746017,
                0.21182306246387478,
                6.140765038564014,
                1.2126768064548799,
                -6.087217030974053,
                -3.4185358224241296,
                2.1697380814825302,
                5.886629952505485,
                -2.476083193846906,
                -5.051840458134671,
                -6.222488177267108
            ]
        ]
    },
    "bias1": {
        "rows": 1,
        "cols": 1,
        "data": [
            [
                2.5001537955618636
            ]
        ]
    },
    "weights0": {
        "rows": 4,
        "cols": 20,
        "data": [
            [
                -0.12573210136131494,
                -0.27536040362988207,
                -1.2726907555207214,
                0.339213075429463,
                -0.009058783783296779,
                -0.14720790908567405,
                0.01257451019673058,
                -0.5191765377277477,
                -0.036572364968322356,
                -0.2027711400422078,
                -0.5080412747333807,
                -0.1163059070461773,
                -0.6861175557721864,
                -0.5288983108339778,
                -0.0032971789998162302,
                0.7178364877594355,
                0.025244685731856356,
                -0.346539235887003,
                -0.3191019194860214,
                -0.6379563692649736
            ],
            [
                0.2655207668609126,
                0.04093743128071668,
                -0.9435336365426319,
                -0.7103873908292078,
                -0.4137637519993494,
                -0.509373520755659,
                0.4087571366058403,
                -0.3832843784100793,
                -0.16423316907563018,
                -0.14942825576725488,
                -0.19225340600774227,
                -0.22365131118295006,
                -0.21618377573047295,
                -0.015337064096402005,
                0.14689310994007979,
                -0.47703772314360593,
                -0.3817863862625374,
                -0.1541134068156716,
                -0.5968677861893285,
                -0.3476108607463891
            ],
            [
                24.168763977970766,
                -9.836426558617687,
                5.664754398463558,
                -14.111847362606376,
                -10.00221444929597,
                14.581877440010587,
                17.19997357638321,
                -5.404021935163031,
                -25.02204217850885,
                0.4037408431416243,
                -3.4966090674187598,
                -14.788816560676434,
                -5.6281002331856,
                11.275901810475144,
                3.5671853400893285,
                -7.275643937418393,
                -14.057885873020497,
                1.8271277560251478,
                9.389555670040092,
                12.224945555826851
            ],
            [
                0.2524923571856686,
                0.17996354938479694,
                -1.3396368435135533,
                -0.8439698246387717,
                -0.43049530544815384,
                -0.6095596695263109,
                -0.46296979864574805,
                -0.4295180418193085,
                0.060532017372878055,
                -0.4749795143799141,
                -0.6851904027133467,
                -0.09766851896399045,
                0.030098495959209364,
                -0.36944395430082366,
                -0.14565410133222725,
                -1.161045319107088,
                -0.3284802847802043,
                -0.48006283792697907,
                -0.5876099721423059,
                -0.5554866645911477
            ]
        ]
    },
    "weights1": {
        "rows": 20,
        "cols": 1,
        "data": [
            [
                -6.354526109926561
            ],
            [
                4.615582065375258
            ],
            [
                -2.2372816025828928
            ],
            [
                6.194528919814128
            ],
            [
                4.6906836554422595
            ],
            [
                -4.150767551824652
            ],
            [
                -4.68297980979957
            ],
            [
                2.8773087663293886
            ],
            [
                9.160500970729125
            ],
            [
                -0.30121977398518657
            ],
            [
                2.0829515052650667
            ],
            [
                6.164452410031898
            ],
            [
                3.0227635667065575
            ],
            [
                -3.4969448224493407
            ],
            [
                -1.6165750525397535
            ],
            [
                3.900109927205594
            ],
            [
                6.013909084487748
            ],
            [
                -0.9842660224215496
            ],
            [
                -3.0311596420961493
            ],
            [
                -3.6981613627667116
            ]
        ]
    },
    "logCount": 20000,
    "inputs": {
        "rows": 1,
        "cols": 4,
        "data": [
            [
                0.048367368668730926,
                0.05113285544074975,
                0.25285229944583393,
                0.674646458478313
            ]
        ]
    },
    "hidden": {
        "rows": 1,
        "cols": 20,
        "data": [
            [
                0.002781025090840499,
                0.685423459395027,
                0.09747284188549098,
                0.8858726639478703,
                0.7124178955418838,
                0.014824683536325883,
                0.007018891862453463,
                0.422340333644052,
                0.9940365536870794,
                0.0785493847989512,
                0.23704176470156946,
                0.9103915945189552,
                0.4416828129286277,
                0.028981466019932615,
                0.06865868140535056,
                0.39105189644059024,
                0.8901380821585346,
                0.08606914896680333,
                0.04228765054274424,
                0.027793385143979377
            ]
        ]
    }
}